date,return
2020-01-02,0.007081010101010083
2020-01-03,-0.006159151515151518
2020-01-06,0.004108030303030302
2020-01-07,-0.0019981313131313084
2020-01-08,0.005649151515151515
2020-01-09,0.006619171717171723
2020-01-10,-0.0034152323232323205
2020-01-13,0.006601303030303023
2020-01-14,-0.0006511818181818243
2020-01-15,0.0012516868686868817
2020-01-16,0.007708141414141422
2020-01-17,0.004021141414141415
2020-01-21,-0.0019397272727272848
2020-01-22,0.0020481111111111147
2020-01-23,0.0008082929292929275
2020-01-24,-0.009349838383838373
2020-01-27,-0.013892222222222222
2020-01-28,0.008367353535353532
2020-01-29,-0.0033040606060606137
2020-01-30,0.00416929292929293
2020-01-31,-0.01740261616161616
2020-02-03,0.008476111111111096
2020-02-04,0.01460162626262628
2020-02-05,0.010390484848484845
2020-02-06,0.0027336767676767884
2020-02-07,-0.004930040404040409
2020-02-10,0.006672040404040392
2020-02-11,0.0035407878787878677
2020-02-12,0.005694101010101015
2020-02-13,0.0001746666666666665
2020-02-14,0.002931343434343421
2020-02-18,-0.002034707070707075
2020-02-19,0.005381868686868688
2020-02-20,-0.004191717171717159
2020-02-21,-0.007938797979797999
2020-02-24,-0.03263442424242423
2020-02-25,-0.030867111111111126
2020-02-26,-0.003895898989898994
2020-02-27,-0.041085919191919194
2020-02-28,-0.010062242424242411
2020-03-02,0.0461649292929293
2020-03-03,-0.027695878787878783
2020-03-04,0.04414859595959596
2020-03-05,-0.034088868686868674
2020-03-06,-0.01498922222222222
2020-03-09,-0.07373935353535355
2020-03-10,0.04838771717171719
2020-03-11,-0.047516949494949515
2020-03-12,-0.09574347474747476
2020-03-13,0.09422847474747473
2020-03-16,-0.12216876767676768
2020-03-17,0.06043951515151514
2020-03-18,-0.054629131313131324
2020-03-19,0.009438191919191938
2020-03-20,-0.04216835353535356
2020-03-23,-0.035092343434343434
2020-03-24,0.1018929292929293
2020-03-25,0.01876491919191919
2020-03-26,0.06742132323232325
2020-03-27,-0.03256325252525254
2020-03-30,0.03147809090909092
2020-03-31,-0.013863111111111097
2020-04-01,-0.04374823232323233
2020-04-02,0.026561414141414143
2020-04-03,-0.016015949494949486
2020-04-06,0.06980406999999998
2020-04-07,-0.0049077399999999756
2020-04-08,0.03348224999999999
2020-04-09,0.013288999999999995
2020-04-13,-0.009124520000000002
2020-04-14,0.029406669999999996
2020-04-15,-0.020609209999999996
2020-04-16,0.005674070000000003
2020-04-17,0.030073769999999972
2020-04-20,-0.018024309999999998
2020-04-21,-0.03271180000000001
2020-04-22,0.02240037999999999
2020-04-23,-0.0027907199999999905
2020-04-24,0.01387255
2020-04-27,0.017537269999999994
2020-04-28,-0.00573605000000001
2020-04-29,0.02033651000000002
2020-04-30,-0.010851879999999987
2020-05-01,-0.02599616000000001
2020-05-04,0.002725170000000004
2020-05-05,0.009540959999999998
2020-05-06,-0.008965450000000017
2020-05-07,0.012014320000000009
2020-05-08,0.014901999999999985
2020-05-11,0.0007798499999999986
2020-05-12,-0.019237160000000003
2020-05-13,-0.016949420000000014
2020-05-14,0.012420769999999977
2020-05-15,0.0036421099999999953
2020-05-18,0.03295877999999998
2020-05-19,-0.01172099
2020-05-20,0.013427160000000013
2020-05-21,-0.006106179999999996
2020-05-22,0.001947000000000011
2020-05-26,0.01225356000000001
2020-05-27,0.018179299999999995
2020-05-28,-0.00111495
2020-05-29,0.005437589999999992
2020-06-01,0.0016970999999999868
2020-06-02,0.007367900000000009
2020-06-03,0.01422651999999999
2020-06-04,-0.0019121600000000022
2020-06-05,0.02464265999999997
2020-06-08,0.013111160000000004
2020-06-09,-0.009980529999999991
2020-06-10,-0.005373750000000008
2020-06-11,-0.06011954000000001
2020-06-12,0.013332369999999986
2020-06-15,0.0076819199999999975
2020-06-16,0.018949960000000012
2020-06-17,-0.004121829999999999
2020-06-18,0.0002912699999999879
2020-06-19,-0.005539180000000013
2020-06-22,0.0035587500000000007
2020-06-23,0.002600770000000018
2020-06-24,-0.02545021
2020-06-25,0.010032809999999994
2020-06-26,-0.023525050000000006
2020-06-29,0.014670639999999997
2020-06-30,0.013527080000000018
2020-07-01,0.0052436599999999885
2020-07-02,0.004878189999999996
2020-07-06,0.013264590000000017
2020-07-07,-0.00948139999999997
2020-07-08,0.005426219999999999
2020-07-09,-0.008691880000000018
2020-07-10,0.013207260000000018
2020-07-13,-0.006579409999999998
2020-07-14,0.01363795
2020-07-15,0.011278030000000003
2020-07-16,-0.002981979999999992
2020-07-17,0.004517859999999983
2020-07-20,0.0035767800000000008
2020-07-21,0.0037757599999999857
2020-07-22,0.006199230000000002
2020-07-23,-0.008211969999999987
2020-07-24,-0.005507159999999997
2020-07-27,0.005650700000000014
2020-07-28,-0.004566609999999998
2020-07-29,0.009868249999999999
2020-07-30,-0.005573509999999987
2020-07-31,-0.001533280000000016
2020-08-03,0.006141159999999993
2020-08-04,0.00541364
2020-08-05,0.0059515900000000135
2020-08-06,0.0037515600000000092
2020-08-07,0.004845980000000019
2020-08-10,0.0029154599999999965
2020-08-11,-0.00444975999999999
2020-08-12,0.013170629999999985
2020-08-13,-0.0028859299999999906
2020-08-14,-9.862999999999059e-05
2020-08-17,0.003092059999999985
2020-08-18,0.0005851600000000134
2020-08-19,-0.002855750000000022
2020-08-20,0.00027087999999999787
2020-08-21,0.0022771499999999995
2020-08-24,0.009670990000000008
2020-08-25,0.0036348000000000218
2020-08-26,0.0079966
2020-08-27,0.0038678299999999983
2020-08-28,0.00710453999999998
2020-08-31,-0.0023448299999999957
2020-09-01,0.002297750000000001
2020-09-02,0.01740524999999999
2020-09-03,-0.02869836000000001
2020-09-04,-0.005769759999999999
2020-09-08,-0.02381568
2020-09-09,0.017545760000000004
2020-09-10,-0.01510439999999999
2020-09-11,0.003004539999999986
2020-09-14,0.013983660000000002
2020-09-15,0.004635189999999987
2020-09-16,-0.00045534999999998567
2020-09-17,-0.0065352499999999925
2020-09-18,-0.008748540000000006
2020-09-21,-0.012684029999999999
2020-09-22,0.005195370000000008
2020-09-23,-0.02043695999999999
2020-09-24,0.0017534000000000085
2020-09-25,0.014288529999999989
2020-09-28,0.015328629999999996
2020-09-29,-0.004236580000000007
2020-09-30,0.010543190000000001
2020-10-01,0.003991580000000007
2020-10-02,-0.008623690000000003
2020-10-05,0.016353710000000007
2020-10-06,-0.012595030000000004
2020-10-07,0.01773578999999998
2020-10-08,0.0074527699999999975
2020-10-09,0.006924320000000005
2020-10-12,0.010956869999999987
2020-10-13,-0.004887660000000006
2020-10-14,-0.006919880000000007
2020-10-15,-0.003674699999999995
2020-10-16,0.003206109999999987
2020-10-19,-0.014487370000000001
2020-10-20,0.001409469999999989
2020-10-21,-0.004870959999999997
2020-10-22,0.007561800000000004
2020-10-23,0.002023920000000009
2020-10-26,-0.018722860000000008
2020-10-27,-0.0073036699999999835
2020-10-28,-0.03323038
2020-10-29,0.00755054
2020-10-30,-0.007517779999999986
2020-11-02,0.013160669999999989
2020-11-03,0.01803441
2020-11-04,0.02324751
2020-11-05,0.016401760000000005
2020-11-06,0.0014758299999999848
2020-11-09,0.0177347
2020-11-10,0.001473500000000002
2020-11-11,0.005921319999999992
2020-11-12,-0.008128569999999998
2020-11-13,0.012658940000000004
2020-11-16,0.012202770000000005
2020-11-17,-0.00238038000000001
2020-11-18,-0.009941579999999995
2020-11-19,0.004224500000000006
2020-11-20,-0.005531690000000011
2020-11-23,0.00880399000000001
2020-11-24,0.01661669000000001
2020-11-25,-0.0019551600000000135
2020-11-27,0.003996979999999985
2020-11-30,-0.002875259999999994
2020-12-01,0.005974819999999988
2020-12-02,0.003476439999999995
2020-12-03,-0.00025919999999998727
2020-12-04,0.010639519999999996
2020-12-07,-0.0017102899999999924
2020-12-08,0.0025643499999999943
2020-12-09,-0.005908189999999996
2020-12-10,-0.0006525300000000278
2020-12-11,-0.0015352399999999768
2020-12-14,-0.005090960000000018
2020-12-15,0.009286409999999998
2020-12-16,0.00048232000000001014
2020-12-17,0.0061677599999999996
2020-12-18,-0.0009720099999999819
2020-12-21,-0.005049320000000012
2020-12-22,-0.004715720000000001
2020-12-23,0.001361180000000013
2020-12-24,0.0030541099999999875
2020-12-28,0.0037966299999999966
2020-12-29,0.00019696999999999087
2020-12-30,0.001473689999999992
2020-12-31,0.007805510000000007
2021-01-04,-0.011624449999999991
2021-01-05,0.0059698100000000025
2021-01-06,0.007626220000000003
2021-01-07,0.012638940000000003
2021-01-08,0.006113759999999981
2021-01-11,-0.0020659600000000056
2021-01-12,0.0002995900000000097
2021-01-13,0.0012157799999999905
2021-01-14,-0.001071169999999989
2021-01-15,-0.007722279999999982
2021-01-19,0.007895789999999995
2021-01-20,0.010259310000000004
2021-01-21,-0.002523289999999994
2021-01-22,-0.006430019999999998
2021-01-25,-0.00030214000000000727
2021-01-26,-0.004090789999999995
2021-01-27,-0.03006049999999999
2021-01-28,0.018048460000000002
2021-01-29,-0.018276819999999996
2021-02-01,0.012770379999999998
2021-02-02,0.018561849999999984
2021-02-03,-0.0017348299999999785
2021-02-04,0.012574480000000016
2021-02-05,0.0033160099999999934
2021-02-08,0.009252149999999997
2021-02-09,8.523000000002049e-05
2021-02-10,0.00021668999999998283
2021-02-11,0.002829299999999988
2021-02-12,0.00554192999999999
2021-02-16,0.0010160000000000147
2021-02-17,0.00041424000000000907
2021-02-18,-0.004042190000000005
2021-02-19,-0.002705480000000003
2021-02-22,-0.005421140000000003
2021-02-23,0.000663050000000006
2021-02-24,0.012253509999999988
2021-02-25,-0.022139590000000008
2021-02-26,-0.00583878
2021-03-01,0.023634470000000005
2021-03-02,-0.00738323999999999
2021-03-03,-0.01185400000000001
2021-03-04,-0.014802060000000002
2021-03-05,0.019430229999999996
2021-03-08,-0.004854720000000006
2021-03-09,0.015613800000000011
2021-03-10,0.0073645500000000036
2021-03-11,0.009745509999999983
2021-03-12,0.0026256100000000117
2021-03-15,0.0059375000000000035
2021-03-16,-0.0018440100000000088
2021-03-17,0.0021432399999999924
2021-03-18,-0.013478059999999997
2021-03-19,0.0006768799999999921
2021-03-22,0.005679689999999999
2021-03-23,-0.008233319999999997
2021-03-24,-0.0046827499999999985
2021-03-25,0.005948110000000022
2021-03-26,0.019665020000000005
2021-03-29,-0.0011380599999999907
2021-03-30,-0.0026200900000000003
2021-03-31,0.003152229999999997
2021-04-01,0.010509720000000004
2021-04-05,0.012476249999999975
2021-04-06,-0.0010817999999999982
2021-04-07,0.00044251000000000587
2021-04-08,0.005155799999999995
2021-04-09,0.00672911999999998
2021-04-12,-0.00031268000000000756
2021-04-13,0.0018718999999999945
2021-04-14,-0.002521349999999988
2021-04-15,0.010011639999999997
2021-04-16,0.0038279800000000034
2021-04-19,-0.0069731899999999954
2021-04-20,-0.008670460000000005
2021-04-21,0.00987219000000002
2021-04-22,-0.00878201
2021-04-23,0.010352449999999985
2021-04-26,0.0013363499999999816
2021-04-27,0.0005233700000000015
2021-04-28,-0.001685759999999983
2021-04-29,0.005210059999999973
2021-04-30,-0.006927420000000004
2021-05-03,0.004378589999999999
2021-05-04,-0.005061160000000008
2021-05-05,0.0018967800000000178
2021-05-06,0.007765750000000011
2021-05-07,0.007678119999999995
2021-05-10,-0.010162940000000013
2021-05-11,-0.007745679999999996
2021-05-12,-0.020941250000000015
2021-05-13,0.011901109999999996
2021-05-14,0.01533961
2021-05-17,-0.0036308500000000027
2021-05-18,-0.007071919999999994
2021-05-19,-0.0018850500000000005
2021-05-20,0.011043219999999989
2021-05-21,0.0006058400000000031
2021-05-24,0.009325460000000011
2021-05-25,-0.0021971500000000223
2021-05-26,0.001975530000000004
2021-05-27,0.00319006999999999
2021-05-28,0.0016020000000000001
2021-06-01,-0.002546749999999998
2021-06-02,0.0012022699999999953
2021-06-03,-0.002983749999999991
2021-06-04,0.00839318999999998
2021-06-07,-0.0018742799999999873
2021-06-08,-0.0018503300000000057
2021-06-09,-0.0029717699999999908
2021-06-10,0.005279900000000003
2021-06-11,0.002577449999999981
2021-06-14,0.0008212699999999753
2021-06-15,-0.002239629999999988
2021-06-16,-0.006350029999999998
2021-06-17,0.00017921000000001877
2021-06-18,-0.013845559999999986
2021-06-21,0.013197649999999998
2021-06-22,0.00474313
2021-06-23,-0.0008916899999999995
2021-06-24,0.008629710000000007
2021-06-25,0.004835259999999992
2021-06-28,0.0007907600000000179
2021-06-29,-0.0003303600000000076
2021-06-30,0.0029823500000000025
2021-07-01,0.003773719999999996
2021-07-02,0.005472179999999998
2021-07-06,-0.004438680000000003
2021-07-07,0.00033712000000001827
2021-07-08,-0.00796133999999999
2021-07-09,0.011657629999999995
2021-07-12,0.003815710000000006
2021-07-13,-0.0034119699999999977
2021-07-14,-6.266000000000859e-05
2021-07-15,-0.0018315100000000032
2021-07-16,-0.006398070000000011
2021-07-19,-0.014121679999999987
2021-07-20,0.014571870000000002
2021-07-21,0.010564009999999976
2021-07-22,0.0008818299999999944
2021-07-23,0.007774650000000002
2021-07-26,0.00136089000000001
2021-07-27,-0.003995710000000006
2021-07-28,0.0014135799999999974
2021-07-29,0.005291439999999994
2021-07-30,-0.00355800000000001
2021-08-02,-0.0010154899999999922
2021-08-03,0.008763770000000018
2021-08-04,-0.0046981200000000035
2021-08-05,0.0055406899999999905
2021-08-06,0.002525570000000005
2021-08-09,-1.9480000000013115e-05
2021-08-10,0.0007837500000000053
2021-08-11,0.0009026799999999888
2021-08-12,0.0008083799999999897
2021-08-13,0.0009564600000000124
2021-08-16,0.0009294499999999948
2021-08-17,-0.005182840000000003
2021-08-18,-0.010646500000000014
2021-08-19,-0.0018647299999999941
2021-08-20,0.006074969999999994
2021-08-23,0.009352960000000002
2021-08-24,0.0009886100000000009
2021-08-25,0.002336309999999995
2021-08-26,-0.005506100000000011
2021-08-27,0.008374540000000014
2021-08-30,0.0010320700000000093
2021-08-31,-0.002454740000000009
2021-09-01,-0.0012646100000000063
2021-09-02,0.004922229999999989
2021-09-03,-0.0003657900000000059
2021-09-07,-0.005358409999999993
2021-09-08,-0.0022719100000000085
2021-09-09,-0.0038471800000000117
2021-09-10,-0.005064920000000005
2021-09-13,0.0025459500000000125
2021-09-14,-0.007695350000000019
2021-09-15,0.008209489999999995
2021-09-16,-0.0013792999999999943
2021-09-17,-0.005833770000000004
2021-09-20,-0.015344680000000005
2021-09-21,0.0005707499999999876
2021-09-22,0.010085670000000014
2021-09-23,0.01419253
2021-09-24,0.0011203299999999982
2021-09-27,-0.000695879999999992
2021-09-28,-0.019496719999999988
2021-09-29,0.0015509000000000096
2021-09-30,-0.011705479999999997
2021-10-01,0.009606440000000003
2021-10-04,-0.013231759999999999
2021-10-05,0.010506360000000006
2021-10-06,0.0016508899999999904
2021-10-07,0.009077539999999992
2021-10-08,-0.0034309100000000027
2021-10-11,-0.008874969999999989
2021-10-12,-0.0028989700000000103
2021-10-13,0.00445115
2021-10-14,0.015959860000000006
2021-10-15,0.008607480000000025
2021-10-18,0.0016705199999999766
2021-10-19,0.008088809999999984
2021-10-20,0.0042733899999999915
2021-10-21,0.001472379999999991
2021-10-22,-0.0021861099999999937
2021-10-25,0.005707310000000011
2021-10-26,0.0014186000000000042
2021-10-27,-0.009939919999999988
2021-10-28,0.009032670000000007
2021-10-29,0.0007738499999999869
2021-11-01,0.002442110000000005
2021-11-02,0.004151950000000008
2021-11-03,0.006621409999999998
2021-11-04,0.0020867700000000034
2021-11-05,0.0036596399999999927
2021-11-08,0.00294110000000001
2021-11-09,-0.002797429999999996
2021-11-10,-0.007885999999999994
2021-11-11,-0.00016216000000001697
2021-11-12,0.006997589999999998
2021-11-15,0.0013733700000000053
2021-11-16,0.0030634699999999918
2021-11-17,-0.004348270000000008
2021-11-18,-0.0003388200000000064
2021-11-19,-0.005073449999999998
2021-11-22,-0.0038305900000000052
2021-11-23,0.0036373700000000104
2021-11-24,0.002448650000000006
2021-11-26,-0.018085439999999998
2021-11-29,0.010458659999999995
2021-11-30,-0.022390070000000012
2021-12-01,-0.013350219999999996
2021-12-02,0.016902550000000002
2021-12-03,-0.006506020000000003
2021-12-06,0.01027061999999999
2021-12-07,0.019531080000000013
2021-12-08,0.001557369999999987
2021-12-09,-0.0067898500000000035
2021-12-10,0.007364759999999989
2021-12-13,-0.008053369999999994
2021-12-14,-0.00501181
2021-12-15,0.014880060000000007
2021-12-16,-0.004609009999999994
2021-12-17,-0.009339870000000012
2021-12-20,-0.011421089999999976
2021-12-21,0.018633100000000007
2021-12-22,0.007877170000000008
2021-12-23,0.007015969999999989
2021-12-27,0.010704520000000007
2021-12-28,-0.0019981800000000095
2021-12-29,0.0014071500000000005
2021-12-30,-0.0016705399999999838
2021-12-31,-0.002356860000000003
2022-01-03,0.004969269999999993
2022-01-04,0.002809190000000005
2022-01-05,-0.015258510000000008
2022-01-06,0.001210510000000016
2022-01-07,-0.004978040000000013
2022-01-10,-0.0005689399999999889
2022-01-11,0.008635060000000002
2022-01-12,0.0009044300000000216
2022-01-13,-0.011107330000000006
2022-01-14,-0.0003457299999999998
2022-01-18,-0.01905132000000001
2022-01-19,-0.00992926999999999
2022-01-20,-0.010926320000000012
2022-01-21,-0.017738379999999995
2022-01-24,0.002599929999999989
2022-01-25,-0.009682329999999984
2022-01-26,-0.004100049999999998
2022-01-27,-0.0037201399999999855
2022-01-28,0.020949710000000003
2022-01-31,0.019163839999999998
2022-02-01,0.009871170000000016
2022-02-02,0.005362160000000022
2022-02-03,-0.019290250000000002
2022-02-04,0.0023794299999999858
2022-02-07,-0.0012414300000000047
2022-02-08,0.006833979999999998
2022-02-09,0.01496679000000001
2022-02-10,-0.01587557
2022-02-11,-0.01874995000000001
2022-02-14,-0.005889589999999984
2022-02-15,0.016564490000000008
2022-02-16,0.00017803999999999262
2022-02-17,-0.020609800000000005
2022-02-18,-0.007447509999999999
2022-02-22,-0.009893329999999988
2022-02-23,-0.016987699999999994
2022-02-24,0.01289816
2022-02-25,0.02305375000000001
2022-02-28,-0.0038381299999999934
2022-03-01,-0.015058239999999999
2022-03-02,0.018930530000000008
2022-03-03,-0.00849451
2022-03-04,-0.009515740000000019
2022-03-07,-0.03215296999999999
2022-03-08,-0.005770029999999996
2022-03-09,0.026595700000000003
2022-03-10,-0.006048179999999993
2022-03-11,-0.011816779999999997
2022-03-14,-0.004686739999999999
2022-03-15,0.020970460000000003
2022-03-16,0.024667089999999996
2022-03-17,0.013436189999999982
2022-03-18,0.011134370000000003
2022-03-21,-0.004413769999999999
2022-03-22,0.011400630000000002
2022-03-23,-0.016021980000000005
2022-03-24,0.013819700000000027
2022-03-25,0.0026316799999999895
2022-03-28,0.006837050000000013
2022-03-29,0.01254381
2022-03-30,-0.007560650000000007
2022-03-31,-0.01579769999999999
2022-04-01,0.002628040000000015
2022-04-04,0.00633520999999998
2022-04-05,-0.014589089999999978
2022-04-06,-0.005710900000000004
2022-04-07,0.0051310100000000105
2022-04-08,-0.0009893700000000037
2022-04-11,-0.012814430000000012
2022-04-12,-0.004628250000000003
2022-04-13,0.009144540000000007
2022-04-14,-0.008304990000000007
2022-04-18,-0.0019174100000000018
2022-04-19,0.015766350000000002
2022-04-20,-0.001582260000000011
2022-04-21,-0.014220620000000008
2022-04-22,-0.030716309999999983
2022-04-25,0.004067340000000002
2022-04-26,-0.025839369999999993
2022-04-27,-1.3660000000018623e-05
2022-04-28,0.023739990000000016
2022-04-29,-0.03422
2022-05-02,0.006600139999999991
2022-05-03,0.004335400000000003
2022-05-04,0.03103662
2022-05-05,-0.030740230000000004
2022-05-06,-0.005446099999999993
2022-05-09,-0.029161710000000007
2022-05-10,0.0007689400000000035
2022-05-11,-0.013032910000000002
2022-05-12,0.002351920000000011
2022-05-13,0.02222358
2022-05-16,-0.003947809999999987
2022-05-17,0.020247529999999996
2022-05-18,-0.0381961
2022-05-19,-0.006495179999999993
2022-05-20,0.001198359999999999
2022-05-23,0.016925130000000004
2022-05-24,-0.005170340000000007
2022-05-25,0.011330430000000004
2022-05-26,0.02075881000000002
2022-05-27,0.02139852000000001
2022-05-31,-0.006500150000000001
2022-06-01,-0.009188209999999999
2022-06-02,0.02105977999999999
2022-06-03,-0.014476110000000021
2022-06-06,0.0007377799999999921
2022-06-07,0.008908279999999998
2022-06-08,-0.012279040000000003
2022-06-09,-0.02235296000000001
2022-06-10,-0.028164769999999995
2022-06-13,-0.03615493000000002
2022-06-14,-0.004602630000000014
2022-06-15,0.013838479999999997
2022-06-16,-0.03026084
2022-06-17,0.0015784999999999961
2022-06-21,0.02198349000000001
2022-06-22,-0.0014254299999999854
2022-06-23,0.007278439999999986
2022-06-24,0.03099333
2022-06-27,-0.003397019999999989
2022-06-28,-0.018623389999999997
2022-06-29,-0.0026285599999999877
2022-06-30,-0.006567249999999997
2022-07-01,0.009061170000000025
2022-07-05,-0.002199850000000013
2022-07-06,0.0016091399999999857
2022-07-07,0.013883089999999994
2022-07-08,-0.000635559999999964
2022-07-11,-0.010308789999999995
2022-07-12,-0.008299410000000012
2022-07-13,-0.005454270000000006
2022-07-14,-0.00424122
2022-07-15,0.02254922000000003
2022-07-18,-0.008057329999999988
2022-07-19,0.02852536999999999
2022-07-20,0.004808869999999998
2022-07-21,0.008283660000000019
2022-07-22,-0.007840530000000004
2022-07-25,0.0028927099999999793
2022-07-26,-0.010259599999999999
2022-07-27,0.021904889999999982
2022-07-28,0.009796009999999997
2022-07-29,0.009416450000000007
2022-08-01,-0.0009285400000000088
2022-08-02,-0.006835390000000002
2022-08-03,0.014698849999999992
2022-08-04,0.00013579000000000423
2022-08-05,3.8669999999999926e-05
2022-08-08,-0.0008875599999999999
2022-08-09,-0.004366140000000018
2022-08-10,0.01986731000000002
2022-08-11,0.001591479999999993
2022-08-12,0.016835719999999995
2022-08-15,0.004367329999999988
2022-08-16,0.0021495900000000102
2022-08-17,-0.007991580000000003
2022-08-18,0.0031339300000000035
2022-08-19,-0.011338790000000008
2022-08-22,-0.020335299999999987
2022-08-23,-0.0028263400000000127
2022-08-24,0.0035947099999999975
2022-08-25,0.013229460000000004
2022-08-26,-0.03261682
2022-08-29,-0.0064008000000000025
2022-08-30,-0.009914619999999992
2022-08-31,-0.006587909999999987
2022-09-01,0.004255519999999998
2022-09-02,-0.011296290000000007
2022-09-06,-0.0042219900000000105
2022-09-07,0.01717223
2022-09-08,0.00831620999999999
2022-09-09,0.015171240000000013
2022-09-12,0.007457269999999999
2022-09-13,-0.041486350000000005
2022-09-14,0.004541280000000007
2022-09-15,-0.009615930000000005
2022-09-16,-0.005472699999999988
2022-09-19,0.005214400000000003
2022-09-20,-0.012252109999999998
2022-09-21,-0.01650640000000002
2022-09-22,-0.008883320000000004
2022-09-23,-0.018453500000000005
2022-09-26,-0.011696729999999997
2022-09-27,-0.0026889900000000035
2022-09-28,0.021507560000000002
2022-09-29,-0.017741350000000003
2022-09-30,-0.01736659
2022-10-03,0.027551739999999974
2022-10-04,0.03077827000000001
2022-10-05,-0.0015562700000000072
2022-10-06,-0.010817790000000015
2022-10-07,-0.02555243999999999
2022-10-10,-0.006858770000000002
2022-10-11,-0.004808180000000019
2022-10-12,-0.003327440000000011
2022-10-13,0.025875450000000008
2022-10-14,-0.02136937
2022-10-17,0.02307580000000002
2022-10-18,0.012367420000000007
2022-10-19,-0.0038155099999999877
2022-10-20,-0.006070259999999999
2022-10-21,0.023183769999999992
2022-10-24,0.012143640000000008
2022-10-25,0.01477762000000001
2022-10-26,-0.000526469999999989
2022-10-27,-0.0019460000000000072
2022-10-28,0.025821029999999995
2022-10-31,-0.007484340000000013
2022-11-01,-0.001476219999999996
2022-11-02,-0.020918399999999976
2022-11-03,-0.007792519999999973
2022-11-04,0.01281290999999998
2022-11-07,0.011073570000000024
2022-11-08,0.007788910000000014
2022-11-09,-0.018440249999999977
2022-11-10,0.04964996000000001
2022-11-11,0.006482219999999972
2022-11-14,-0.006276520000000009
2022-11-15,0.009443610000000002
2022-11-16,-0.008028389999999982
2022-11-17,-0.0015549299999999956
2022-11-18,0.005341880000000009
2022-11-21,-0.0015885099999999965
2022-11-22,0.013360929999999977
2022-11-23,0.0057892500000000045
2022-11-25,0.0010943500000000182
2022-11-28,-0.01225610000000001
2022-11-29,-0.00012687999999998792
2022-11-30,0.02807599999999999
2022-12-01,-0.0002981200000000126
2022-12-02,-0.00036798999999999144
2022-12-05,-0.01694199000000001
2022-12-06,-0.012366129999999989
2022-12-07,-0.0001988400000000046
2022-12-08,0.007366320000000015
2022-12-09,-0.007089400000000009
2022-12-12,0.013529940000000008
2022-12-13,0.004559630000000007
2022-12-14,-0.004682380000000017
2022-12-15,-0.023644339999999993
2022-12-16,-0.009036070000000002
2022-12-19,-0.007095620000000009
2022-12-20,0.0009444999999999949
2022-12-21,0.015058429999999998
2022-12-22,-0.012548080000000024
2022-12-23,0.005328120000000014
2022-12-27,-0.00237428
2022-12-28,-0.009597219999999997
2022-12-29,0.015895399999999987
2022-12-30,-0.0012828600000000022
2023-01-03,-0.0013052699999999981
2023-01-04,0.010496389999999994
2023-01-05,-0.00977925
2023-01-06,0.021577929999999995
2023-01-09,-0.002231879999999982
2023-01-10,0.007645350000000016
2023-01-11,0.007212279999999977
2023-01-12,0.003849270000000007
2023-01-13,0.003660770000000009
2023-01-17,-0.0034144900000000027
2023-01-18,-0.015876110000000013
2023-01-19,-0.0076536400000000015
2023-01-20,0.01580450999999998
2023-01-23,0.011150810000000014
2023-01-24,0.00031653000000001386
2023-01-25,0.0006263599999999799
2023-01-26,0.007812520000000002
2023-01-27,2.6699999999867455e-06
2023-01-30,-0.010280230000000013
2023-01-31,0.012483970000000004
2023-02-01,0.010337679999999986
2023-02-02,0.005499609999999971
2023-02-03,-0.00867454999999999
2023-02-06,-0.004390970000000005
2023-02-07,0.008690549999999998
2023-02-08,-0.010353089999999985
2023-02-09,-0.007596030000000014
2023-02-10,0.004912939999999997
2023-02-13,0.009888739999999997
2023-02-14,-0.001469169999999975
2023-02-15,0.002014329999999975
2023-02-16,-0.013137900000000008
2023-02-17,9.828999999999914e-05
2023-02-21,-0.018100210000000016
2023-02-22,-0.001875399999999995
2023-02-23,0.0028735199999999988
2023-02-24,-0.010053880000000008
2023-02-27,0.0022955800000000037
2023-02-28,-0.0032572700000000013
2023-03-01,-0.003205439999999987
2023-03-02,0.00836226000000001
2023-03-03,0.013757730000000006
2023-03-06,0.0015882500000000055
2023-03-07,-0.014917709999999987
2023-03-08,0.0009661600000000069
2023-03-09,-0.01756412000000001
2023-03-10,-0.011196169999999998
2023-03-13,-0.0027803900000000015
2023-03-14,0.01646953999999999
2023-03-15,-0.006666659999999994
2023-03-16,0.014849509999999996
2023-03-17,-0.011645099999999992
2023-03-20,0.01046994
2023-03-21,0.011218050000000007
2023-03-22,-0.01615484000000001
2023-03-23,0.0021633899999999877
2023-03-24,0.005397680000000011
2023-03-27,0.004506310000000007
2023-03-28,-0.0017145100000000135
2023-03-29,0.012564080000000002
2023-03-30,0.0038658299999999946
2023-03-31,0.013328469999999999
2023-04-03,0.00619568999999999
2023-04-04,-0.005150300000000002
2023-04-05,9.796999999997738e-05
2023-04-06,0.0014744600000000019
2023-04-10,0.002138369999999996
2023-04-11,0.001444190000000015
2023-04-12,-0.004042440000000003
2023-04-13,0.010805940000000002
2023-04-14,-0.0007724999999999949
2023-04-17,0.003683619999999996
2023-04-18,0.0012180400000000125
2023-04-19,-0.000496369999999985
2023-04-20,-0.005741430000000018
2023-04-21,0.002313669999999997
2023-04-24,0.0007529500000000169
2023-04-25,-0.015427760000000014
2023-04-26,-0.009573209999999999
2023-04-27,0.016893429999999977
2023-04-28,0.009439940000000034
2023-05-01,0.0008690499999999944
2023-05-02,-0.01318664
2023-05-03,-0.009058659999999993
2023-05-04,-0.008051589999999992
2023-05-05,0.01681884000000001
2023-05-08,0.0010706899999999944
2023-05-09,-0.004509000000000008
2023-05-10,0.001358960000000001
2023-05-11,-0.0026019799999999847
2023-05-12,-0.0016648600000000113
2023-05-15,0.004585680000000005
2023-05-16,-0.008532600000000003
2023-05-17,0.013581490000000024
2023-05-18,0.006862550000000021
2023-05-19,-0.0015083399999999913
2023-05-22,-0.0008003700000000066
2023-05-23,-0.009867839999999994
2023-05-24,-0.009419650000000017
2023-05-25,0.0019875199999999987
2023-05-26,0.011378160000000002
2023-05-30,-0.0018878700000000005
2023-05-31,-0.0021337799999999996
2023-06-01,0.007537209999999994
2023-06-02,0.014699580000000004
2023-06-05,-0.0021108000000000142
2023-06-06,0.002933640000000007
2023-06-07,-0.0006854099999999991
2023-06-08,0.006607080000000007
2023-06-09,0.0016245400000000063
2023-06-12,0.00835432000000002
2023-06-13,0.006148089999999981
2023-06-14,-0.000546690000000002
2023-06-15,0.013108700000000011
2023-06-16,-0.002833759999999998
2023-06-20,-0.006707119999999993
2023-06-21,-0.003519630000000008
2023-06-22,0.0009696800000000128
2023-06-23,-0.006653570000000007
2023-06-26,-0.0009825600000000047
2023-06-27,0.007234499999999988
2023-06-28,-0.0017053099999999966
2023-06-29,0.005575689999999993
2023-06-30,0.009608799999999994
2023-07-03,0.0013255900000000065
2023-07-05,-0.0019718499999999894
2023-07-06,-0.011117730000000015
2023-07-07,-0.004176859999999973
2023-07-10,0.007079669999999995
2023-07-11,0.0066506100000000064
2023-07-12,0.005427159999999982
2023-07-13,0.00559661999999999
2023-07-14,-0.0007669299999999991
2023-07-17,0.0024828300000000066
2023-07-18,0.007599840000000009
2023-07-19,0.003966849999999999
2023-07-20,5.999999999997327e-06
2023-07-21,0.003989969999999992
2023-07-24,0.0029627599999999875
2023-07-25,0.0005702900000000155
2023-07-26,0.0009207899999999875
2023-07-27,-0.004955019999999994
2023-07-28,0.008238360000000004
2023-07-31,0.0017639699999999901
2023-08-01,-0.0030166299999999963
2023-08-02,-0.011525410000000015
2023-08-03,-0.0027524000000000125
2023-08-04,-0.0031996199999999864
2023-08-07,0.01117708
2023-08-08,-0.0033941300000000165
2023-08-09,-0.004887920000000002
2023-08-10,0.0015618799999999999
2023-08-11,-0.00018236000000002028
2023-08-14,0.0038944500000000007
2023-08-15,-0.010214029999999995
2023-08-16,-0.006899109999999993
2023-08-17,-0.007249460000000003
2023-08-18,0.0004569299999999754
2023-08-21,0.0039465599999999965
2023-08-22,-0.003872450000000002
2023-08-23,0.008842329999999992
2023-08-24,-0.012472939999999981
2023-08-25,0.008035909999999983
2023-08-28,0.006822710000000001
2023-08-29,0.012882240000000007
2023-08-30,0.0032691800000000035
2023-08-31,-0.0029241400000000035
2023-09-01,0.0028591499999999887
2023-09-05,-0.005564759999999985
2023-09-06,-0.005467229999999985
2023-09-07,-0.0014547100000000036
2023-09-08,0.0009364199999999891
2023-09-11,0.005964169999999999
2023-09-12,-0.0032874500000000056
2023-09-13,0.0013913300000000064
2023-09-14,0.00820832999999999
2023-09-15,-0.010965069999999983
2023-09-18,0.0001262599999999968
2023-09-19,-0.0022753200000000104
2023-09-20,-0.006058279999999996
2023-09-21,-0.01543094
2023-09-22,-0.0035034599999999956
2023-09-25,0.003168659999999994
2023-09-26,-0.012921989999999979
2023-09-27,-0.0012798900000000092
2023-09-28,0.006325060000000023
2023-09-29,-0.003969959999999998
2023-10-02,-0.0032720600000000254
2023-10-03,-0.012538519999999997
2023-10-04,0.005486120000000008
2023-10-05,-0.0014515000000000036
2023-10-06,0.009760169999999995
2023-10-09,0.005805869999999991
2023-10-10,0.006419639999999999
2023-10-11,0.00030796000000000144
2023-10-12,-0.0067698099999999985
2023-10-13,-0.0017184000000000069
2023-10-16,0.010502669999999995
2023-10-17,0.0018438500000000036
2023-10-18,-0.011689290000000005
2023-10-19,-0.0065778199999999825
2023-10-20,-0.010353950000000011
2023-10-23,-0.00434459000000002
2023-10-24,0.009175350000000013
2023-10-25,-0.015088929999999985
2023-10-26,-0.008938880000000003
2023-10-27,-0.008674529999999991
2023-10-30,0.012885329999999988
2023-10-31,0.008152180000000016
2023-11-01,0.007501810000000017
2023-11-02,0.021786709999999994
2023-11-03,0.008814920000000004
2023-11-06,0.000924500000000007
2023-11-07,0.0011723200000000168
2023-11-08,-0.00027169000000000216
2023-11-09,-0.009275150000000003
2023-11-10,0.01357428000000001
2023-11-13,0.0008628800000000137
2023-11-14,0.016728769999999983
2023-11-15,0.0034190899999999988
2023-11-16,0.00034109999999999387
2023-11-17,0.0026035399999999975
2023-11-20,0.00643111999999997
2023-11-21,-0.0013816699999999935
2023-11-22,0.004138700000000017
2023-11-24,0.001979509999999997
2023-11-27,-0.0031192900000000046
2023-11-28,-0.0006108099999999938
2023-11-29,0.0016756399999999943
2023-11-30,0.006478979999999994
2023-12-01,0.006273929999999997
2023-12-04,-0.0032600899999999976
2023-12-05,-0.003122150000000007
2023-12-06,-0.0021109200000000044
2023-12-07,0.006581109999999999
2023-12-08,0.002931819999999992
2023-12-11,0.010421940000000003
2023-12-12,0.003273390000000004
2023-12-13,0.014628200000000004
2023-12-14,0.00520239
2023-12-15,-0.0006324199999999914
2023-12-18,0.003019979999999977
2023-12-19,0.00745294000000001
2023-12-20,-0.015474440000000006
2023-12-21,0.010894270000000003
2023-12-22,0.0024659600000000058
2023-12-26,0.005111070000000002
2023-12-27,0.0023326800000000006
2023-12-28,0.0009103699999999861
2023-12-29,-0.0021020700000000054
2024-01-02,-0.002493419999999991
2024-01-03,-0.0072985599999999895
2024-01-04,-0.0008498100000000075
2024-01-05,0.002086090000000005
2024-01-08,0.010508449999999999
2024-01-09,-0.0017784400000000033
2024-01-10,0.004131279999999981
2024-01-11,-0.0008303000000000028
2024-01-12,0.0009498299999999973
2024-01-16,-0.0029136199999999974
2024-01-17,-0.005252260000000003
2024-01-18,0.007161009999999993
2024-01-19,0.01222232000000002
2024-01-22,0.0020744200000000035
2024-01-23,0.0029480400000000137
2024-01-24,0.0003537599999999917
2024-01-25,0.005391140000000003
2024-01-26,0.00032060000000001115
2024-01-29,0.006478080000000006
2024-01-30,0.0014482200000000055
2024-01-31,-0.010682910000000009
2024-02-01,0.009580249999999992
2024-02-02,0.005077169999999999
2024-02-05,-0.003222240000000009
2024-02-06,0.002191880000000003
2024-02-07,0.005848659999999999
2024-02-08,0.0018718000000000016
2024-02-09,0.003541590000000011
2024-02-12,0.000839579999999983
2024-02-13,-0.014027609999999996
2024-02-14,0.01049947
2024-02-15,0.007627289999999993
2024-02-16,-0.003999759999999994
2024-02-20,-0.0043230799999999965
2024-02-21,0.0004357700000000061
2024-02-22,0.015672979999999996
2024-02-23,0.00011099999999999804
2024-02-26,-0.0017159599999999999
2024-02-27,0.0012460799999999908
2024-02-28,-0.0013275599999999956
2024-02-29,0.0025300500000000055
2024-03-01,0.007055310000000001
2024-03-04,-0.0011170099999999903
2024-03-05,-0.00920957
2024-03-06,0.004958100000000011
2024-03-07,0.007151269999999988
2024-03-08,-0.003589299999999987
2024-03-11,0.0004982300000000051
2024-03-12,0.0071457800000000096
2024-03-13,-0.0019877199999999927
2024-03-14,-0.004163699999999999
2024-03-15,-0.006006090000000007
2024-03-18,0.004901770000000008
2024-03-19,0.004859910000000006
2024-03-20,0.008138689999999994
2024-03-21,0.00703633
2024-03-22,-0.003976380000000007
2024-03-25,-0.002311199999999994
2024-03-26,-0.0012538099999999828
2024-03-27,0.01026086
2024-03-28,0.0013117500000000071
2024-04-01,-0.002836450000000008
2024-04-02,-0.008581090000000005
2024-04-03,-0.00022470999999998995
2024-04-04,-0.012558240000000009
2024-04-05,0.009581319999999997
2024-04-08,-8.374999999999138e-05
2024-04-09,0.0026975999999999944
2024-04-10,-0.011492150000000005
2024-04-11,0.003096449999999987
2024-04-12,-0.015514929999999996
2024-04-15,-0.007722410000000015
2024-04-16,0.0001079500000000091
2024-04-17,-0.0037313100000000215
2024-04-18,-0.0015122999999999897
2024-04-19,-0.00222991999999999
2024-04-22,0.00705097999999999
2024-04-23,0.01255619000000003
2024-04-24,0.001525679999999976
2024-04-25,-0.004624409999999989
2024-04-26,0.004845289999999993
2024-04-29,0.0030949200000000053
2024-04-30,-0.01297425
2024-05-01,-0.005743289999999992
2024-05-02,0.007253990000000011
2024-05-03,0.009015840000000018
2024-05-06,0.009528570000000007
2024-05-07,0.0018300500000000108
2024-05-08,0.0010067700000000012
2024-05-09,0.0054360600000000064
2024-05-10,0.0037567099999999904
2024-05-13,-0.0006855000000000045
2024-05-14,0.004379660000000016
2024-05-15,0.01142775000000001
2024-05-16,-0.0011754899999999891
2024-05-17,0.001961709999999992
2024-05-20,-0.000511510000000004
2024-05-21,0.0014472499999999906
2024-05-22,-2.16399999999895e-05
2024-05-23,-0.01309682999999999
2024-05-24,0.0033525900000000016
2024-05-28,-0.004844029999999994
2024-05-29,-0.00928399000000002
2024-05-30,-0.0020876499999999986
2024-05-31,0.012676330000000006
2024-06-03,-0.0011170300000000037
2024-06-04,0.0021572899999999953
2024-06-05,0.009413760000000004
2024-06-06,0.0009672799999999994
2024-06-07,-0.0001351600000000109
2024-06-10,0.0013616300000000004
2024-06-11,-0.003351430000000001
2024-06-12,0.004594459999999992
2024-06-13,-0.0004233200000000102
2024-06-14,0.0009364900000000177
2024-06-17,0.007626569999999982
2024-06-18,0.0028448699999999794
2024-06-20,0.00166903000000001
2024-06-21,0.00127675000000001
2024-06-24,0.001658460000000014
2024-06-25,-0.0011785500000000059
2024-06-26,-0.0009044400000000096
2024-06-27,0.00032603000000000254
2024-06-28,-0.0008163699999999827
2024-07-01,-0.0012000600000000006
2024-07-02,0.005197259999999999
2024-07-03,0.0023343899999999952
2024-07-05,0.0044885900000000084
2024-07-08,-0.0009910700000000075
2024-07-09,-0.0002817299999999946
2024-07-10,0.00802652999999999
2024-07-11,-0.0028413600000000133
2024-07-12,0.005537680000000028
2024-07-15,0.001972070000000003
2024-07-16,0.009674580000000007
2024-07-17,-0.009336720000000017
2024-07-18,-0.010422199999999993
2024-07-19,-0.0048040299999999835
2024-07-22,0.008779970000000005
2024-07-23,-0.002649350000000005
2024-07-24,-0.014119660000000003
2024-07-25,-0.0009845099999999996
2024-07-26,0.010705820000000013
2024-07-29,0.00020727999999998743
2024-07-30,-0.002392610000000022
2024-07-31,0.014901189999999998
2024-08-01,-0.013858659999999998
2024-08-02,-0.021825209999999994
2024-08-05,-0.024576029999999992
2024-08-06,0.009660519999999975
2024-08-07,-0.00704209
2024-08-08,0.024941619999999998
2024-08-09,0.003577790000000001
2024-08-12,-0.0020486799999999915
2024-08-13,0.01591128000000001
2024-08-14,0.005127319999999989
2024-08-15,0.016647770000000006
2024-08-16,0.0020477099999999964
2024-08-19,0.008595750000000025
2024-08-20,-0.0014910500000000061
2024-08-21,0.0035351900000000084
2024-08-22,-0.006802790000000017
2024-08-23,0.009061020000000003
2024-08-26,-0.0016709599999999894
2024-08-27,0.002773739999999992
2024-08-28,-0.005204189999999977
2024-08-29,0.0035942299999999925
2024-08-30,0.010749209999999974
2024-09-03,-0.019419159999999994
2024-09-04,0.0005859999999999956
2024-09-05,-0.005963739999999988
2024-09-06,-0.014493929999999993
2024-09-09,0.012617640000000015
2024-09-10,0.00277292
2024-09-11,0.0071862799999999945
2024-09-12,0.004233669999999993
2024-09-13,0.006830550000000005
2024-09-16,0.005625580000000005
2024-09-17,-0.0005919599999999825
2024-09-18,-0.004398660000000008
2024-09-19,0.01509499999999999
2024-09-20,-0.0010078699999999997
2024-09-23,0.002676199999999996
2024-09-24,0.0006761600000000012
2024-09-25,-0.002761240000000022
2024-09-26,0.006742800000000001
2024-09-27,-0.0003053800000000068
2024-09-30,0.0025212600000000095
2024-10-01,-0.006628820000000013
2024-10-02,0.00038332999999999076
2024-10-03,-0.0044561300000000165
2024-10-04,0.008652750000000008
2024-10-07,-0.009043220000000005
2024-10-08,0.007177760000000001
2024-10-09,0.009614589999999978
2024-10-10,-0.0033673399999999973
2024-10-11,0.009414600000000004
2024-10-14,0.006341299999999985
2024-10-15,-0.008798130000000001
2024-10-16,0.005893210000000001
2024-10-17,-0.0019922600000000026
2024-10-18,0.003159089999999994
2024-10-21,-0.006292049999999995
2024-10-22,-0.001858370000000009
2024-10-23,-0.005436690000000007
2024-10-24,0.0010699899999999994
2024-10-25,-0.004797549999999996
2024-10-28,0.0022180900000000055
2024-10-29,0.0003563699999999952
2024-10-30,-0.0036404999999999996
2024-10-31,-0.008677829999999994
2024-11-01,0.003240149999999999
2024-11-04,-0.002783200000000007
2024-11-05,0.010667840000000005
2024-11-06,0.023381049999999987
2024-11-07,0.0013879299999999784
2024-11-08,0.005508989999999993
2024-11-11,0.005272579999999996
2024-11-12,-0.005973920000000006
2024-11-13,-0.0018383800000000084
2024-11-14,-0.006423740000000016
2024-11-15,-0.010939750000000005
2024-11-18,0.003927259999999983
2024-11-19,-0.0019430900000000119
2024-11-20,0.0021685400000000044
2024-11-21,0.01196968
2024-11-22,0.004740780000000002
2024-11-25,0.004855450000000007
2024-11-26,0.002944789999999977
2024-11-27,-0.002784419999999989
2024-11-29,0.004690889999999999
2024-12-02,0.00029528000000001017
2024-12-03,-0.002418770000000001
2024-12-04,0.002466469999999998
2024-12-05,-0.004463709999999995
2024-12-06,0.0020178100000000114
2024-12-09,-0.008316130000000003
2024-12-10,-0.0022827800000000007
2024-12-11,0.0034991499999999977
2024-12-12,-0.007381270000000005
2024-12-13,-7.336999999997713e-05
2024-12-16,-0.0006253100000000024
2024-12-17,-0.0031327100000000064
2024-12-18,-0.026582770000000002
2024-12-19,-0.006117659999999989
2024-12-20,0.01071637999999999
2024-12-23,0.006464139999999996
2024-12-24,0.009630699999999997
2024-12-26,0.0004415900000000093
2024-12-27,-0.0072648100000000035
2024-12-30,-0.011891609999999997
2024-12-31,-0.0007284499999999951
